{
  "ip": 0,
  "fr": 60,
  "v": "5.1.20",
  "assets": [],
  "layers": [
    {
      "ty": 4,
      "nm": "Frame Copy 2",
      "ip": 0,
      "st": 0,
      "ind": 3,
      "hix": 1,
      "ks": {
        "o": {
          "a": 0,
          "k": 100
        },
        "or": {
          "a": 0,
          "k": [
            0,
            0,
            0
          ]
        },
        "a": {
          "a": 0,
          "k": [
            393,
            308.5,
            0
          ]
        },
        "p": {
          "s": true,
          "x": {
            "a": 1,
            "k": [
              {
                "t": 0,
                "s": [
                  174.41202246093752
                ],
                "e": [
                  262.078
                ],
                "i": {
                  "x": [
                    0.515
                  ],
                  "y": [
                    0.955
                  ]
                },
                "o": {
                  "x": [
                    0.455
                  ],
                  "y": [
                    0.03
                  ]
                }
              },
              {
                "t": 50,
                "s": [
                  262.078
                ],
                "e": [
                  211.539
                ],
                "i": {
                  "x": [
                    0.515
                  ],
                  "y": [
                    0.955
                  ]
                },
                "o": {
                  "x": [
                    0.455
                  ],
                  "y": [
                    0.03
                  ]
                }
              },
              {
                "t": 100,
                "s": [
                  211.539
                ],
                "e": [
                  141.54400170898435
                ],
                "i": {
                  "x": [
                    0.515
                  ],
                  "y": [
                    0.955
                  ]
                },
                "o": {
                  "x": [
                    0.455
                  ],
                  "y": [
                    0.03
                  ]
                }
              },
              {
                "t": 150
              }
            ]
          },
          "y": {
            "a": 1,
            "k": [
              {
                "t": 0,
                "s": [
                  256.32
                ],
                "e": [
                  204.86151904296875
                ],
                "i": {
                  "x": [
                    0.515
                  ],
                  "y": [
                    0.955
                  ]
                },
                "o": {
                  "x": [
                    0.455
                  ],
                  "y": [
                    0.03
                  ]
                }
              },
              {
                "t": 50,
                "s": [
                  204.86151904296875
                ],
                "e": [
                  118.93450183105469
                ],
                "i": {
                  "x": [
                    0.515
                  ],
                  "y": [
                    0.955
                  ]
                },
                "o": {
                  "x": [
                    0.455
                  ],
                  "y": [
                    0.03
                  ]
                }
              },
              {
                "t": 100,
                "s": [
                  118.93450183105469
                ],
                "e": [
                  204.92951220703125
                ],
                "i": {
                  "x": [
                    0.515
                  ],
                  "y": [
                    0.955
                  ]
                },
                "o": {
                  "x": [
                    0.455
                  ],
                  "y": [
                    0.03
                  ]
                }
              },
              {
                "t": 150
              }
            ]
          }
        },
        "rx": {
          "a": 0,
          "k": 0
        },
        "ry": {
          "a": 0,
          "k": 0
        },
        "rz": {
          "a": 0,
          "k": 0
        },
        "s": {
          "a": 0,
          "k": [
            17.7,
            17.7
          ]
        }
      },
      "shapes": [
        {
          "ty": "gr",
          "nm": "Frame Copy 2 shape group",
          "it": [
            {
              "ty": "sh",
              "ks": {
                "a": 0,
                "k": {
                  "c": true,
                  "v": [
                    [
                      444.557,
                      234.03
                    ],
                    [
                      391.95,
                      373.247
                    ],
                    [
                      262.233,
                      442.856
                    ],
                    [
                      115.815,
                      408.552
                    ],
                    [
                      30.6039,
                      289.537
                    ],
                    [
                      45.8058,
                      139.018
                    ],
                    [
                      152.619,
                      39.505
                    ],
                    [
                      303.939,
                      35.2045
                    ],
                    [
                      416.353,
                      128.516
                    ]
                  ],
                  "i": [
                    [
                      -0.10000000000002274,
                      -36.905
                    ],
                    [
                      33.80400000000003,
                      -38.403999999999996
                    ],
                    [
                      49.90699999999998,
                      -7.100999999999999
                    ],
                    [
                      42.60499999999999,
                      28.603999999999985
                    ],
                    [
                      13.3017,
                      48.105999999999995
                    ],
                    [
                      -23.302899999999998,
                      46.20599999999999
                    ],
                    [
                      -45.905,
                      19.2025
                    ],
                    [
                      -49.00700000000003,
                      -17.002200000000002
                    ],
                    [
                      -25.10300000000001,
                      -43.005099999999985
                    ]
                  ],
                  "o": [
                    [
                      -0.19999999999998863,
                      51.20599999999999
                    ],
                    [
                      -33.403999999999996,
                      38.004999999999995
                    ],
                    [
                      -51.105999999999995,
                      7.201000000000022
                    ],
                    [
                      -41.605599999999995,
                      -27.903999999999996
                    ],
                    [
                      -13.8018,
                      -49.90699999999998
                    ],
                    [
                      22.402899999999995,
                      -44.506
                    ],
                    [
                      47.906000000000006,
                      -20.102500000000003
                    ],
                    [
                      47.20599999999996,
                      16.302
                    ],
                    [
                      18.601999999999975,
                      31.903999999999996
                    ]
                  ]
                }
              }
            },
            {
              "ty": "sh",
              "ks": {
                "a": 0,
                "k": {
                  "c": true,
                  "v": [
                    [
                      444.557,
                      234.03
                    ],
                    [
                      455.858,
                      234.03
                    ],
                    [
                      405.752,
                      93.5119
                    ],
                    [
                      280.436,
                      16.9021
                    ],
                    [
                      130.617,
                      37.4047
                    ],
                    [
                      30.9039,
                      144.118
                    ],
                    [
                      20.6026,
                      295.438
                    ],
                    [
                      105.313,
                      414.853
                    ],
                    [
                      249.832,
                      455.358
                    ],
                    [
                      385.649,
                      396.05
                    ],
                    [
                      455.958,
                      233.93
                    ]
                  ],
                  "i": [
                    [
                      0.0999999999999659,
                      -7.4010000000000105
                    ],
                    [
                      0.10000000000002274,
                      7.300999999999988
                    ],
                    [
                      32.20400000000001,
                      39.905100000000004
                    ],
                    [
                      48.80600000000004,
                      10.5014
                    ],
                    [
                      45.80500000000001,
                      -23.802999999999997
                    ],
                    [
                      20.102600000000002,
                      -45.30539999999999
                    ],
                    [
                      -14.201799999999999,
                      -49.80699999999999
                    ],
                    [
                      -40.5048,
                      -29.204000000000008
                    ],
                    [
                      -51.007000000000005,
                      3.6000000000000227
                    ],
                    [
                      -37.10500000000002,
                      34.40499999999997
                    ],
                    [
                      -0.20000000000004547,
                      60.90699999999998
                    ]
                  ],
                  "o": [
                    [
                      0,
                      7.300999999999988
                    ],
                    [
                      -0.19999999999998863,
                      -51.30699999999999
                    ],
                    [
                      -31.403999999999996,
                      -38.904999999999994
                    ],
                    [
                      -50.50699999999998,
                      -10.90135
                    ],
                    [
                      -44.105999999999995,
                      23.003
                    ],
                    [
                      -21.002650000000003,
                      47.406000000000006
                    ],
                    [
                      13.701800000000002,
                      48.105999999999995
                    ],
                    [
                      41.60600000000001,
                      30.00400000000002
                    ],
                    [
                      50.605999999999995,
                      -3.5009999999999764
                    ],
                    [
                      44.80599999999998,
                      -41.60500000000002
                    ],
                    [
                      0,
                      -7.301000000000016
                    ]
                  ]
                }
              }
            },
            {
              "ty": "st",
              "o": {
                "a": 0,
                "k": 100
              },
              "c": {
                "a": 0,
                "k": [
                  0.13333333333333333,
                  0.13333333333333333,
                  0.12941176470588237,
                  1
                ]
              },
              "lc": 3,
              "lj": 1,
              "ml": 10,
              "w": {
                "a": 0,
                "k": 24
              }
            },
            {
              "ty": "fl",
              "o": {
                "a": 0,
                "k": 0
              },
              "c": {
                "a": 0,
                "k": [
                  0,
                  0,
                  0,
                  0
                ]
              },
              "r": 1
            },
            {
              "ty": "tr",
              "o": {
                "a": 0,
                "k": 100
              },
              "a": {
                "a": 0,
                "k": [
                  0,
                  0
                ]
              },
              "s": {
                "a": 0,
                "k": [
                  100,
                  100
                ]
              },
              "p": {
                "a": 0,
                "k": [
                  0,
                  0
                ]
              },
              "r": {
                "a": 0,
                "k": 0
              }
            }
          ]
        },
        {
          "ty": "gr",
          "nm": "Frame Copy 2 shape group",
          "it": [
            {
              "ty": "sh",
              "ks": {
                "a": 0,
                "k": {
                  "c": true,
                  "v": [
                    [
                      444.557,
                      234.03
                    ],
                    [
                      391.95,
                      373.247
                    ],
                    [
                      262.233,
                      442.856
                    ],
                    [
                      115.815,
                      408.552
                    ],
                    [
                      30.6039,
                      289.537
                    ],
                    [
                      45.8058,
                      139.018
                    ],
                    [
                      152.619,
                      39.505
                    ],
                    [
                      303.939,
                      35.2045
                    ],
                    [
                      416.353,
                      128.516
                    ],
                    [
                      444.557,
                      234.03
                    ],
                    [
                      455.858,
                      234.03
                    ],
                    [
                      405.752,
                      93.5119
                    ],
                    [
                      280.436,
                      16.9021
                    ],
                    [
                      130.617,
                      37.4047
                    ],
                    [
                      30.9039,
                      144.118
                    ],
                    [
                      20.6026,
                      295.438
                    ],
                    [
                      105.313,
                      414.853
                    ],
                    [
                      249.832,
                      455.358
                    ],
                    [
                      385.649,
                      396.05
                    ],
                    [
                      455.958,
                      233.93
                    ]
                  ],
                  "i": [
                    [
                      0.0999999999999659,
                      -7.4010000000000105
                    ],
                    [
                      33.80400000000003,
                      -38.403999999999996
                    ],
                    [
                      49.90699999999998,
                      -7.100999999999999
                    ],
                    [
                      42.60499999999999,
                      28.603999999999985
                    ],
                    [
                      13.3017,
                      48.105999999999995
                    ],
                    [
                      -23.302899999999998,
                      46.20599999999999
                    ],
                    [
                      -45.905,
                      19.2025
                    ],
                    [
                      -49.00700000000003,
                      -17.002200000000002
                    ],
                    [
                      -25.10300000000001,
                      -43.005099999999985
                    ],
                    [
                      -0.10000000000002274,
                      -36.905
                    ],
                    [
                      0.10000000000002274,
                      7.300999999999988
                    ],
                    [
                      32.20400000000001,
                      39.905100000000004
                    ],
                    [
                      48.80600000000004,
                      10.5014
                    ],
                    [
                      45.80500000000001,
                      -23.802999999999997
                    ],
                    [
                      20.102600000000002,
                      -45.30539999999999
                    ],
                    [
                      -14.201799999999999,
                      -49.80699999999999
                    ],
                    [
                      -40.5048,
                      -29.204000000000008
                    ],
                    [
                      -51.007000000000005,
                      3.6000000000000227
                    ],
                    [
                      -37.10500000000002,
                      34.40499999999997
                    ],
                    [
                      -0.20000000000004547,
                      60.90699999999998
                    ]
                  ],
                  "o": [
                    [
                      -0.19999999999998863,
                      51.20599999999999
                    ],
                    [
                      -33.403999999999996,
                      38.004999999999995
                    ],
                    [
                      -51.105999999999995,
                      7.201000000000022
                    ],
                    [
                      -41.605599999999995,
                      -27.903999999999996
                    ],
                    [
                      -13.8018,
                      -49.90699999999998
                    ],
                    [
                      22.402899999999995,
                      -44.506
                    ],
                    [
                      47.90700000000001,
                      -20.102500000000003
                    ],
                    [
                      47.20599999999996,
                      16.302
                    ],
                    [
                      18.601999999999975,
                      31.903999999999996
                    ],
                    [
                      0,
                      7.300999999999988
                    ],
                    [
                      -0.19999999999998863,
                      -51.30699999999999
                    ],
                    [
                      -31.403999999999996,
                      -38.904999999999994
                    ],
                    [
                      -50.50699999999998,
                      -10.90135
                    ],
                    [
                      -44.105999999999995,
                      23.003
                    ],
                    [
                      -21.002650000000003,
                      47.406000000000006
                    ],
                    [
                      13.701800000000002,
                      48.105999999999995
                    ],
                    [
                      41.60600000000001,
                      30.00400000000002
                    ],
                    [
                      50.605999999999995,
                      -3.5009999999999764
                    ],
                    [
                      44.80599999999998,
                      -41.60500000000002
                    ],
                    [
                      0,
                      -7.301000000000016
                    ]
                  ]
                }
              }
            },
            {
              "ty": "st",
              "o": {
                "a": 0,
                "k": 0
              },
              "w": {
                "a": 0,
                "k": 0
              },
              "c": {
                "a": 0,
                "k": [
                  0,
                  0,
                  0,
                  0
                ]
              },
              "lc": 3,
              "lj": 1,
              "ml": 1
            },
            {
              "ty": "fl",
              "o": {
                "a": 0,
                "k": 100
              },
              "r": 1,
              "c": {
                "a": 0,
                "k": [
                  0.41568627450980394,
                  0.5254901960784314,
                  0.47058823529411764,
                  1
                ]
              }
            },
            {
              "ty": "tr",
              "o": {
                "a": 0,
                "k": 100
              },
              "a": {
                "a": 0,
                "k": [
                  0,
                  0
                ]
              },
              "s": {
                "a": 0,
                "k": [
                  100,
                  100
                ]
              },
              "p": {
                "a": 0,
                "k": [
                  0,
                  0
                ]
              },
              "r": {
                "a": 0,
                "k": 0
              }
            }
          ]
        },
        {
          "ty": "gr",
          "nm": "Frame Copy 2 shape group",
          "it": [
            {
              "ty": "sh",
              "ks": {
                "a": 0,
                "k": {
                  "c": true,
                  "v": [
                    [
                      583.374,
                      525.267
                    ],
                    [
                      630.78,
                      445.557
                    ],
                    [
                      629.18,
                      437.356
                    ],
                    [
                      628.38,
                      436.756
                    ],
                    [
                      619.279,
                      438.656
                    ],
                    [
                      572.573,
                      518.966
                    ],
                    [
                      574.973,
                      527.467
                    ],
                    [
                      575.073,
                      527.567
                    ]
                  ],
                  "i": [
                    [
                      -1.7000000000000455,
                      2.8999999999999773
                    ],
                    [
                      0,
                      0
                    ],
                    [
                      2.5,
                      1.8999999999999773
                    ],
                    [
                      0,
                      0
                    ],
                    [
                      1.8999999999999773,
                      -3.201000000000022
                    ],
                    [
                      0,
                      0
                    ],
                    [
                      -3.099999999999909,
                      -1.6000000000000227
                    ],
                    [
                      0,
                      0
                    ]
                  ],
                  "o": [
                    [
                      0,
                      0
                    ],
                    [
                      1.6000000000000227,
                      -2.701000000000022
                    ],
                    [
                      0,
                      0
                    ],
                    [
                      -3,
                      -2.200999999999965
                    ],
                    [
                      0,
                      0
                    ],
                    [
                      -1.6999999999999318,
                      3
                    ],
                    [
                      0,
                      0
                    ],
                    [
                      2.9010000000000673,
                      1.6000000000000227
                    ]
                  ]
                }
              }
            },
            {
              "ty": "st",
              "o": {
                "a": 0,
                "k": 0
              },
              "w": {
                "a": 0,
                "k": 0
              },
              "c": {
                "a": 0,
                "k": [
                  0,
                  0,
                  0,
                  0
                ]
              },
              "lc": 3,
              "lj": 1,
              "ml": 1
            },
            {
              "ty": "fl",
              "o": {
                "a": 0,
                "k": 100
              },
              "r": 1,
              "c": {
                "a": 0,
                "k": [
                  0.08627450980392157,
                  0.08627450980392157,
                  0.08627450980392157,
                  1
                ]
              }
            },
            {
              "ty": "tr",
              "o": {
                "a": 0,
                "k": 100
              },
              "a": {
                "a": 0,
                "k": [
                  0,
                  0
                ]
              },
              "s": {
                "a": 0,
                "k": [
                  100,
                  100
                ]
              },
              "p": {
                "a": 0,
                "k": [
                  0,
                  0
                ]
              },
              "r": {
                "a": 0,
                "k": 0
              }
            }
          ]
        },
        {
          "ty": "gr",
          "nm": "Frame Copy 2 shape group",
          "it": [
            {
              "ty": "sh",
              "ks": {
                "a": 0,
                "k": {
                  "c": true,
                  "v": [
                    [
                      456.3,
                      250.738
                    ],
                    [
                      475.576,
                      230.812
                    ],
                    [
                      455.65,
                      211.537
                    ],
                    [
                      436.375,
                      231.463
                    ]
                  ],
                  "i": [
                    [
                      -10.824999999999989,
                      0.17900000000000205
                    ],
                    [
                      0.17899999999997362,
                      10.824999999999989
                    ],
                    [
                      10.825000000000045,
                      -0.18000000000000682
                    ],
                    [
                      -0.18000000000000682,
                      -10.825999999999993
                    ]
                  ],
                  "o": [
                    [
                      10.825999999999965,
                      -0.18000000000000682
                    ],
                    [
                      -0.18000000000000682,
                      -10.825000000000017
                    ],
                    [
                      -10.824999999999989,
                      0.17900000000000205
                    ],
                    [
                      0.17899999999997362,
                      10.825000000000017
                    ]
                  ]
                }
              }
            },
            {
              "ty": "st",
              "o": {
                "a": 0,
                "k": 0
              },
              "w": {
                "a": 0,
                "k": 0
              },
              "c": {
                "a": 0,
                "k": [
                  0,
                  0,
                  0,
                  0
                ]
              },
              "lc": 3,
              "lj": 1,
              "ml": 1
            },
            {
              "ty": "fl",
              "o": {
                "a": 0,
                "k": 100
              },
              "r": 1,
              "c": {
                "a": 0,
                "k": [
                  1,
                  1,
                  1,
                  1
                ]
              }
            },
            {
              "ty": "tr",
              "o": {
                "a": 0,
                "k": 31
              },
              "a": {
                "a": 0,
                "k": [
                  0,
                  0
                ]
              },
              "s": {
                "a": 0,
                "k": [
                  100,
                  100
                ]
              },
              "p": {
                "a": 0,
                "k": [
                  0,
                  0
                ]
              },
              "r": {
                "a": 0,
                "k": 0
              }
            }
          ]
        },
        {
          "ty": "gr",
          "nm": "Frame Copy 2 shape group",
          "it": [
            {
              "ty": "sh",
              "ks": {
                "a": 0,
                "k": {
                  "c": true,
                  "v": [
                    [
                      142.418,
                      264.934
                    ],
                    [
                      250.932,
                      116.815
                    ],
                    [
                      421.854,
                      185.524
                    ],
                    [
                      448.157,
                      171.722
                    ],
                    [
                      253.632,
                      85.5109
                    ],
                    [
                      113.615,
                      242.031
                    ],
                    [
                      112.614,
                      264.134
                    ]
                  ],
                  "i": [
                    [
                      0.29999999999998295,
                      19.201999999999998
                    ],
                    [
                      -65.40799999999999,
                      18.801999999999992
                    ],
                    [
                      -34.40499999999997,
                      -58.708
                    ],
                    [
                      9.701000000000022,
                      16.50199999999998
                    ],
                    [
                      76.50999999999999,
                      -16.2021
                    ],
                    [
                      9.001000000000005,
                      -75.71000000000001
                    ],
                    [
                      -0.10000000000000853,
                      -7.4010000000000105
                    ]
                  ],
                  "o": [
                    [
                      -1,
                      -67.90900000000002
                    ],
                    [
                      65.30800000000002,
                      -18.802499999999995
                    ],
                    [
                      9.701000000000022,
                      16.50200000000001
                    ],
                    [
                      -39.60499999999996,
                      -67.50900000000001
                    ],
                    [
                      -75.40899999999999,
                      16.0021
                    ],
                    [
                      -0.9009999999999962,
                      7.300999999999988
                    ],
                    [
                      0.29999999999999716,
                      19.00200000000001
                    ]
                  ]
                }
              }
            },
            {
              "ty": "st",
              "o": {
                "a": 0,
                "k": 0
              },
              "w": {
                "a": 0,
                "k": 0
              },
              "c": {
                "a": 0,
                "k": [
                  0,
                  0,
                  0,
                  0
                ]
              },
              "lc": 3,
              "lj": 1,
              "ml": 1
            },
            {
              "ty": "fl",
              "o": {
                "a": 0,
                "k": 100
              },
              "r": 1,
              "c": {
                "a": 0,
                "k": [
                  1,
                  1,
                  1,
                  1
                ]
              }
            },
            {
              "ty": "tr",
              "o": {
                "a": 0,
                "k": 22
              },
              "a": {
                "a": 0,
                "k": [
                  0,
                  0
                ]
              },
              "s": {
                "a": 0,
                "k": [
                  100,
                  100
                ]
              },
              "p": {
                "a": 0,
                "k": [
                  0,
                  0
                ]
              },
              "r": {
                "a": 0,
                "k": 0
              }
            }
          ]
        },
        {
          "ty": "gr",
          "nm": "Frame Copy 2 shape group",
          "it": [
            {
              "ty": "sh",
              "ks": {
                "a": 0,
                "k": {
                  "c": true,
                  "v": [
                    [
                      480.461,
                      450.957
                    ],
                    [
                      490.162,
                      458.158
                    ],
                    [
                      586.074,
                      422.454
                    ],
                    [
                      512.965,
                      375.548
                    ]
                  ],
                  "i": [
                    [
                      0,
                      0
                    ],
                    [
                      0,
                      0
                    ],
                    [
                      0,
                      0
                    ],
                    [
                      0,
                      0
                    ]
                  ],
                  "o": [
                    [
                      0,
                      0
                    ],
                    [
                      0,
                      0
                    ],
                    [
                      0,
                      0
                    ],
                    [
                      0,
                      0
                    ]
                  ]
                }
              }
            },
            {
              "ty": "st",
              "o": {
                "a": 0,
                "k": 0
              },
              "w": {
                "a": 0,
                "k": 0
              },
              "c": {
                "a": 0,
                "k": [
                  0,
                  0,
                  0,
                  0
                ]
              },
              "lc": 3,
              "lj": 1,
              "ml": 1
            },
            {
              "ty": "gf",
              "o": {
                "a": 0,
                "k": 100
              },
              "r": 1,
              "g": {
                "p": 2,
                "k": {
                  "a": 0,
                  "k": [
                    0.9543,
                    0.5607843137254902,
                    0.9647058823529412,
                    0.9882352941176471,
                    0.9994,
                    0.5647058823529412,
                    0.9803921568627451,
                    1
                  ]
                }
              },
              "t": 1,
              "s": {
                "a": 0,
                "k": [
                  483.39,
                  418.611
                ]
              },
              "e": {
                "a": 0,
                "k": [
                  585.642,
                  427.723
                ]
              }
            },
            {
              "ty": "tr",
              "o": {
                "a": 0,
                "k": 12
              },
              "a": {
                "a": 0,
                "k": [
                  0,
                  0
                ]
              },
              "s": {
                "a": 0,
                "k": [
                  100,
                  100
                ]
              },
              "p": {
                "a": 0,
                "k": [
                  0,
                  0
                ]
              },
              "r": {
                "a": 0,
                "k": 0
              }
            }
          ]
        },
        {
          "ty": "gr",
          "nm": "Frame Copy 2 shape group",
          "it": [
            {
              "ty": "sh",
              "ks": {
                "a": 0,
                "k": {
                  "c": true,
                  "v": [
                    [
                      775.599,
                      587.875
                    ],
                    [
                      775.099,
                      588.675
                    ],
                    [
                      725.992,
                      613.378
                    ],
                    [
                      571.773,
                      519.066
                    ],
                    [
                      621.979,
                      435.455
                    ],
                    [
                      776.199,
                      532.868
                    ]
                  ],
                  "i": [
                    [
                      13.700999999999908,
                      -22.003000000000043
                    ],
                    [
                      0,
                      0
                    ],
                    [
                      13.402000000000044,
                      8.30099999999993
                    ],
                    [
                      0,
                      0
                    ],
                    [
                      0,
                      0
                    ],
                    [
                      0,
                      0
                    ]
                  ],
                  "o": [
                    [
                      0,
                      0
                    ],
                    [
                      -13.701999999999998,
                      22.003000000000043
                    ],
                    [
                      0,
                      0
                    ],
                    [
                      0,
                      0
                    ],
                    [
                      0,
                      0
                    ],
                    [
                      13.401000000000067,
                      8.400999999999954
                    ]
                  ]
                }
              }
            },
            {
              "ty": "st",
              "o": {
                "a": 0,
                "k": 0
              },
              "w": {
                "a": 0,
                "k": 0
              },
              "c": {
                "a": 0,
                "k": [
                  0,
                  0,
                  0,
                  0
                ]
              },
              "lc": 3,
              "lj": 1,
              "ml": 1
            },
            {
              "ty": "gf",
              "o": {
                "a": 0,
                "k": 100
              },
              "r": 1,
              "g": {
                "p": 2,
                "k": {
                  "a": 0,
                  "k": [
                    0.9543,
                    0.5607843137254902,
                    0.9647058823529412,
                    0.9882352941176471,
                    0.9994,
                    0.5647058823529412,
                    0.9803921568627451,
                    1
                  ]
                }
              },
              "t": 1,
              "s": {
                "a": 0,
                "k": [
                  570.212,
                  536.551
                ]
              },
              "e": {
                "a": 0,
                "k": [
                  786.154,
                  555.794
                ]
              }
            },
            {
              "ty": "tr",
              "o": {
                "a": 0,
                "k": 100
              },
              "a": {
                "a": 0,
                "k": [
                  0,
                  0
                ]
              },
              "s": {
                "a": 0,
                "k": [
                  100,
                  100
                ]
              },
              "p": {
                "a": 0,
                "k": [
                  0,
                  0
                ]
              },
              "r": {
                "a": 0,
                "k": 0
              }
            }
          ]
        },
        {
          "ty": "gr",
          "nm": "Frame Copy 2 shape group",
          "it": [
            {
              "ty": "sh",
              "ks": {
                "a": 0,
                "k": {
                  "c": true,
                  "v": [
                    [
                      710.49,
                      499.364
                    ],
                    [
                      666.985,
                      569.172
                    ],
                    [
                      400.651,
                      402.851
                    ],
                    [
                      444.156,
                      333.142
                    ]
                  ],
                  "i": [
                    [
                      0,
                      0
                    ],
                    [
                      0,
                      0
                    ],
                    [
                      0,
                      0
                    ],
                    [
                      0,
                      0
                    ]
                  ],
                  "o": [
                    [
                      0,
                      0
                    ],
                    [
                      0,
                      0
                    ],
                    [
                      0,
                      0
                    ],
                    [
                      0,
                      0
                    ]
                  ]
                }
              }
            },
            {
              "ty": "st",
              "o": {
                "a": 0,
                "k": 0
              },
              "w": {
                "a": 0,
                "k": 0
              },
              "c": {
                "a": 0,
                "k": [
                  0,
                  0,
                  0,
                  0
                ]
              },
              "lc": 3,
              "lj": 1,
              "ml": 1
            },
            {
              "ty": "gf",
              "o": {
                "a": 0,
                "k": 100
              },
              "r": 1,
              "g": {
                "p": 2,
                "k": {
                  "a": 0,
                  "k": [
                    0.9543,
                    0.5607843137254902,
                    0.9647058823529412,
                    0.9882352941176471,
                    0.9994,
                    0.5647058823529412,
                    0.9803921568627451,
                    1
                  ]
                }
              },
              "t": 1,
              "s": {
                "a": 0,
                "k": [
                  394.954,
                  466.809
                ]
              },
              "e": {
                "a": 0,
                "k": [
                  710.9,
                  494.963
                ]
              }
            },
            {
              "ty": "tr",
              "o": {
                "a": 0,
                "k": 100
              },
              "a": {
                "a": 0,
                "k": [
                  0,
                  0
                ]
              },
              "s": {
                "a": 0,
                "k": [
                  100,
                  100
                ]
              },
              "p": {
                "a": 0,
                "k": [
                  0,
                  0
                ]
              },
              "r": {
                "a": 0,
                "k": 0
              }
            }
          ]
        }
      ],
      "op": 150
    },
    {
      "ty": 4,
      "nm": "Group Copy 6",
      "ip": 0,
      "st": 0,
      "ind": 2,
      "hix": 2,
      "ks": {
        "o": {
          "a": 0,
          "k": 100
        },
        "or": {
          "a": 0,
          "k": [
            0,
            0,
            0
          ]
        },
        "a": {
          "a": 0,
          "k": [
            289,
            289.5,
            0
          ]
        },
        "p": {
          "s": true,
          "x": {
            "a": 0,
            "k": 302.41499977730564
          },
          "y": {
            "a": 0,
            "k": 370.1469998674774
          }
        },
        "rx": {
          "a": 0,
          "k": 0
        },
        "ry": {
          "a": 0,
          "k": 0
        },
        "rz": {
          "a": 0,
          "k": 0
        },
        "s": {
          "a": 0,
          "k": [
            20.200000000000003,
            12
          ]
        }
      },
      "shapes": [
        {
          "ty": "gr",
          "nm": "Group Copy 6 shape group",
          "it": [
            {
              "ty": "sh",
              "ks": {
                "a": 0,
                "k": {
                  "c": true,
                  "v": [
                    [
                      27.3446,
                      18.2869
                    ],
                    [
                      17.3364,
                      561.704
                    ],
                    [
                      560.98,
                      561.704
                    ],
                    [
                      560.98,
                      17.0593
                    ]
                  ],
                  "i": [
                    [
                      0,
                      0
                    ],
                    [
                      0,
                      0
                    ],
                    [
                      0,
                      0
                    ],
                    [
                      0,
                      0
                    ]
                  ],
                  "o": [
                    [
                      0,
                      0
                    ],
                    [
                      0,
                      0
                    ],
                    [
                      0,
                      0
                    ],
                    [
                      0,
                      0
                    ]
                  ]
                }
              }
            },
            {
              "ty": "st",
              "o": {
                "a": 0,
                "k": 100
              },
              "c": {
                "a": 0,
                "k": [
                  1,
                  1,
                  1,
                  1
                ]
              },
              "lc": 3,
              "lj": 1,
              "ml": 10,
              "w": {
                "a": 0,
                "k": 34
              }
            },
            {
              "ty": "fl",
              "o": {
                "a": 0,
                "k": 100
              },
              "r": 1,
              "c": {
                "a": 0,
                "k": [
                  1,
                  1,
                  1,
                  1
                ]
              }
            },
            {
              "ty": "tr",
              "o": {
                "a": 0,
                "k": 54
              },
              "a": {
                "a": 0,
                "k": [
                  0,
                  0
                ]
              },
              "s": {
                "a": 0,
                "k": [
                  100,
                  100
                ]
              },
              "p": {
                "a": 0,
                "k": [
                  0,
                  0
                ]
              },
              "r": {
                "a": 0,
                "k": 0
              }
            }
          ]
        }
      ],
      "op": 150
    },
    {
      "ty": 4,
      "nm": "Group Copy 4",
      "ip": 0,
      "st": 0,
      "ind": 1,
      "hix": 3,
      "ks": {
        "o": {
          "a": 0,
          "k": 100
        },
        "or": {
          "a": 0,
          "k": [
            0,
            0,
            0
          ]
        },
        "a": {
          "a": 0,
          "k": [
            122.5,
            122.5,
            0
          ]
        },
        "p": {
          "s": true,
          "x": {
            "a": 0,
            "k": 157.995
          },
          "y": {
            "a": 0,
            "k": 150.393
          }
        },
        "rx": {
          "a": 0,
          "k": 0
        },
        "ry": {
          "a": 0,
          "k": 0
        },
        "rz": {
          "a": 0,
          "k": 0
        },
        "s": {
          "a": 0,
          "k": [
            70.19999999999999,
            70.19999999999999
          ]
        }
      },
      "shapes": [
        {
          "ty": "gr",
          "nm": "Group Copy 4 shape group",
          "it": [
            {
              "ty": "sh",
              "ks": {
                "a": 0,
                "k": {
                  "c": true,
                  "v": [
                    [
                      142.7,
                      217.3
                    ],
                    [
                      140.4,
                      216.8
                    ],
                    [
                      137.5,
                      209.2
                    ],
                    [
                      146.6,
                      178.4
                    ],
                    [
                      153.2,
                      173.6
                    ],
                    [
                      158,
                      180.2
                    ],
                    [
                      148.1,
                      213.9
                    ]
                  ],
                  "i": [
                    [
                      2.200000000000017,
                      0
                    ],
                    [
                      0.6999999999999886,
                      0.29999999999998295
                    ],
                    [
                      -1.3000000000000114,
                      2.9000000000000057
                    ],
                    [
                      -1.6999999999999886,
                      10.599999999999994
                    ],
                    [
                      -3.1999999999999886,
                      -0.5
                    ],
                    [
                      0.5,
                      -3.1999999999999886
                    ],
                    [
                      4.800000000000011,
                      -10.700000000000017
                    ]
                  ],
                  "o": [
                    [
                      -0.799999999999983,
                      0
                    ],
                    [
                      -2.9000000000000057,
                      -1.3000000000000114
                    ],
                    [
                      4.400000000000006,
                      -9.799999999999983
                    ],
                    [
                      0.5,
                      -3.200000000000017
                    ],
                    [
                      3.1000000000000227,
                      0.5
                    ],
                    [
                      -1.8000000000000114,
                      11.600000000000023
                    ],
                    [
                      -1,
                      2.0999999999999943
                    ]
                  ]
                }
              }
            },
            {
              "ty": "st",
              "o": {
                "a": 0,
                "k": 0
              },
              "w": {
                "a": 0,
                "k": 0
              },
              "c": {
                "a": 0,
                "k": [
                  0,
                  0,
                  0,
                  0
                ]
              },
              "lc": 3,
              "lj": 1,
              "ml": 1
            },
            {
              "ty": "gf",
              "o": {
                "a": 0,
                "k": 100
              },
              "r": 1,
              "g": {
                "p": 2,
                "k": {
                  "a": 0,
                  "k": [
                    0.9543,
                    0.5607843137254902,
                    0.9647058823529412,
                    0.9882352941176471,
                    0.9994,
                    0.5647058823529412,
                    0.9803921568627451,
                    1
                  ]
                }
              },
              "t": 1,
              "s": {
                "a": 0,
                "k": [
                  -147.071,
                  -99.1459
                ]
              },
              "e": {
                "a": 0,
                "k": [
                  191.263,
                  239.188
                ]
              }
            },
            {
              "ty": "tr",
              "o": {
                "a": 0,
                "k": 100
              },
              "a": {
                "a": 0,
                "k": [
                  0,
                  0
                ]
              },
              "s": {
                "a": 0,
                "k": [
                  100,
                  100
                ]
              },
              "p": {
                "a": 0,
                "k": [
                  0,
                  0
                ]
              },
              "r": {
                "a": 0,
                "k": 0
              }
            }
          ]
        },
        {
          "ty": "gr",
          "nm": "Group Copy 4 shape group",
          "it": [
            {
              "ty": "sh",
              "ks": {
                "a": 0,
                "k": {
                  "c": true,
                  "v": [
                    [
                      153.7,
                      165.3
                    ],
                    [
                      147.9,
                      159.5
                    ],
                    [
                      122.2,
                      103.5
                    ],
                    [
                      103.5,
                      122.2
                    ],
                    [
                      103.5,
                      123.2
                    ],
                    [
                      98.1,
                      129.3
                    ],
                    [
                      92,
                      123.9
                    ],
                    [
                      92,
                      122.2
                    ],
                    [
                      122.3,
                      91.9
                    ],
                    [
                      159.6,
                      159.4
                    ]
                  ],
                  "i": [
                    [
                      3.200000000000017,
                      0
                    ],
                    [
                      0,
                      3.1999999999999886
                    ],
                    [
                      20.299999999999997,
                      0
                    ],
                    [
                      0,
                      -10.299999999999997
                    ],
                    [
                      0,
                      -0.29999999999999716
                    ],
                    [
                      3.1000000000000085,
                      -0.20000000000001705
                    ],
                    [
                      0.20000000000000284,
                      3.0999999999999943
                    ],
                    [
                      0,
                      0.5999999999999943
                    ],
                    [
                      -16.700000000000003,
                      0
                    ],
                    [
                      0,
                      -31.099999999999994
                    ]
                  ],
                  "o": [
                    [
                      -3.1999999999999886,
                      0
                    ],
                    [
                      0,
                      -19.400000000000006
                    ],
                    [
                      -10.299999999999997,
                      0
                    ],
                    [
                      0,
                      0.29999999999999716
                    ],
                    [
                      0.20000000000000284,
                      3.200000000000003
                    ],
                    [
                      -3.1999999999999886,
                      0.19999999999998863
                    ],
                    [
                      0,
                      -0.6000000000000085
                    ],
                    [
                      0,
                      -16.700000000000003
                    ],
                    [
                      27.500000000000014,
                      0
                    ],
                    [
                      -0.09999999999999432,
                      3.299999999999983
                    ]
                  ]
                }
              }
            },
            {
              "ty": "st",
              "o": {
                "a": 0,
                "k": 0
              },
              "w": {
                "a": 0,
                "k": 0
              },
              "c": {
                "a": 0,
                "k": [
                  0,
                  0,
                  0,
                  0
                ]
              },
              "lc": 3,
              "lj": 1,
              "ml": 1
            },
            {
              "ty": "gf",
              "o": {
                "a": 0,
                "k": 100
              },
              "r": 1,
              "g": {
                "p": 2,
                "k": {
                  "a": 0,
                  "k": [
                    0.9543,
                    0.5607843137254902,
                    0.9647058823529412,
                    0.9882352941176471,
                    0.9994,
                    0.5647058823529412,
                    0.9803921568627451,
                    1
                  ]
                }
              },
              "t": 1,
              "s": {
                "a": 0,
                "k": [
                  -121.191,
                  -125.011
                ]
              },
              "e": {
                "a": 0,
                "k": [
                  217.137,
                  213.316
                ]
              }
            },
            {
              "ty": "tr",
              "o": {
                "a": 0,
                "k": 100
              },
              "a": {
                "a": 0,
                "k": [
                  0,
                  0
                ]
              },
              "s": {
                "a": 0,
                "k": [
                  100,
                  100
                ]
              },
              "p": {
                "a": 0,
                "k": [
                  0,
                  0
                ]
              },
              "r": {
                "a": 0,
                "k": 0
              }
            }
          ]
        },
        {
          "ty": "gr",
          "nm": "Group Copy 4 shape group",
          "it": [
            {
              "ty": "sh",
              "ks": {
                "a": 0,
                "k": {
                  "c": true,
                  "v": [
                    [
                      103.1,
                      203.1
                    ],
                    [
                      102.2,
                      203
                    ],
                    [
                      97.4,
                      196.4
                    ],
                    [
                      98.6,
                      168.9
                    ],
                    [
                      97.1,
                      155.8
                    ],
                    [
                      101.9,
                      149.2
                    ],
                    [
                      108.5,
                      153.9
                    ],
                    [
                      110.1,
                      168.2
                    ],
                    [
                      108.8,
                      198.1
                    ]
                  ],
                  "i": [
                    [
                      2.8000000000000114,
                      0
                    ],
                    [
                      0.29999999999999716,
                      0.09999999999999432
                    ],
                    [
                      -0.5,
                      3.1999999999999886
                    ],
                    [
                      0.6000000000000085,
                      9.199999999999989
                    ],
                    [
                      0.7000000000000028,
                      4.299999999999983
                    ],
                    [
                      -3.200000000000003,
                      0.5
                    ],
                    [
                      -0.5,
                      -3.0999999999999943
                    ],
                    [
                      -0.29999999999999716,
                      -4.799999999999983
                    ],
                    [
                      1.5,
                      -9.799999999999983
                    ]
                  ],
                  "o": [
                    [
                      -0.29999999999999716,
                      0
                    ],
                    [
                      -3.200000000000003,
                      -0.5
                    ],
                    [
                      1.3999999999999915,
                      -9
                    ],
                    [
                      -0.29999999999999716,
                      -4.400000000000006
                    ],
                    [
                      -0.5,
                      -3.1000000000000227
                    ],
                    [
                      3.0999999999999943,
                      -0.5
                    ],
                    [
                      0.7999999999999972,
                      4.699999999999989
                    ],
                    [
                      0.6000000000000085,
                      10
                    ],
                    [
                      -0.5,
                      2.9000000000000057
                    ]
                  ]
                }
              }
            },
            {
              "ty": "st",
              "o": {
                "a": 0,
                "k": 0
              },
              "w": {
                "a": 0,
                "k": 0
              },
              "c": {
                "a": 0,
                "k": [
                  0,
                  0,
                  0,
                  0
                ]
              },
              "lc": 3,
              "lj": 1,
              "ml": 1
            },
            {
              "ty": "gf",
              "o": {
                "a": 0,
                "k": 100
              },
              "r": 1,
              "g": {
                "p": 2,
                "k": {
                  "a": 0,
                  "k": [
                    0.9543,
                    0.5607843137254902,
                    0.9647058823529412,
                    0.9882352941176471,
                    0.9994,
                    0.5647058823529412,
                    0.9803921568627451,
                    1
                  ]
                }
              },
              "t": 1,
              "s": {
                "a": 0,
                "k": [
                  -57.0499,
                  35.1866
                ]
              },
              "e": {
                "a": 0,
                "k": [
                  301.991,
                  351.462
                ]
              }
            },
            {
              "ty": "tr",
              "o": {
                "a": 0,
                "k": 100
              },
              "a": {
                "a": 0,
                "k": [
                  0,
                  0
                ]
              },
              "s": {
                "a": 0,
                "k": [
                  100,
                  100
                ]
              },
              "p": {
                "a": 0,
                "k": [
                  0,
                  0
                ]
              },
              "r": {
                "a": 0,
                "k": 0
              }
            }
          ]
        },
        {
          "ty": "gr",
          "nm": "Group Copy 4 shape group",
          "it": [
            {
              "ty": "sh",
              "ks": {
                "a": 0,
                "k": {
                  "c": true,
                  "v": [
                    [
                      92.1,
                      240.7
                    ],
                    [
                      89.8,
                      240.2
                    ],
                    [
                      86.9,
                      232.6
                    ],
                    [
                      93.8,
                      213.8
                    ],
                    [
                      101,
                      209.9
                    ],
                    [
                      104.9,
                      217.1
                    ],
                    [
                      97.5,
                      237.4
                    ]
                  ],
                  "i": [
                    [
                      2.200000000000003,
                      0
                    ],
                    [
                      0.7000000000000028,
                      0.30000000000001137
                    ],
                    [
                      -1.3000000000000114,
                      2.9000000000000057
                    ],
                    [
                      -1.8999999999999915,
                      6.399999999999977
                    ],
                    [
                      -3.0999999999999943,
                      -0.9000000000000057
                    ],
                    [
                      0.8999999999999915,
                      -3.0999999999999943
                    ],
                    [
                      2.9000000000000057,
                      -6.599999999999994
                    ]
                  ],
                  "o": [
                    [
                      -0.7999999999999972,
                      0
                    ],
                    [
                      -2.8999999999999915,
                      -1.299999999999983
                    ],
                    [
                      2.6999999999999886,
                      -6.099999999999994
                    ],
                    [
                      0.9000000000000057,
                      -3.1000000000000227
                    ],
                    [
                      3.0999999999999943,
                      0.9000000000000057
                    ],
                    [
                      -2,
                      6.900000000000006
                    ],
                    [
                      -1.0999999999999943,
                      2
                    ]
                  ]
                }
              }
            },
            {
              "ty": "st",
              "o": {
                "a": 0,
                "k": 0
              },
              "w": {
                "a": 0,
                "k": 0
              },
              "c": {
                "a": 0,
                "k": [
                  0,
                  0,
                  0,
                  0
                ]
              },
              "lc": 3,
              "lj": 1,
              "ml": 1
            },
            {
              "ty": "gf",
              "o": {
                "a": 0,
                "k": 100
              },
              "r": 1,
              "g": {
                "p": 2,
                "k": {
                  "a": 0,
                  "k": [
                    0.9543,
                    0.5607843137254902,
                    0.9647058823529412,
                    0.9882352941176471,
                    0.9994,
                    0.5647058823529412,
                    0.9803921568627451,
                    1
                  ]
                }
              },
              "t": 1,
              "s": {
                "a": 0,
                "k": [
                  -187.809,
                  -58.3963
                ]
              },
              "e": {
                "a": 0,
                "k": [
                  150.521,
                  279.934
                ]
              }
            },
            {
              "ty": "tr",
              "o": {
                "a": 0,
                "k": 100
              },
              "a": {
                "a": 0,
                "k": [
                  0,
                  0
                ]
              },
              "s": {
                "a": 0,
                "k": [
                  100,
                  100
                ]
              },
              "p": {
                "a": 0,
                "k": [
                  0,
                  0
                ]
              },
              "r": {
                "a": 0,
                "k": 0
              }
            }
          ]
        },
        {
          "ty": "gr",
          "nm": "Group Copy 4 shape group",
          "it": [
            {
              "ty": "sh",
              "ks": {
                "a": 0,
                "k": {
                  "c": true,
                  "v": [
                    [
                      174,
                      158
                    ],
                    [
                      173.6,
                      158
                    ],
                    [
                      168.2,
                      151.9
                    ],
                    [
                      162.8,
                      112.2
                    ],
                    [
                      166.3,
                      104.8
                    ],
                    [
                      173.7,
                      108.3
                    ],
                    [
                      179.8,
                      152.5
                    ]
                  ],
                  "i": [
                    [
                      3,
                      0
                    ],
                    [
                      0.20000000000001705,
                      0
                    ],
                    [
                      -0.19999999999998863,
                      3.1999999999999886
                    ],
                    [
                      4.399999999999977,
                      12.799999999999997
                    ],
                    [
                      -3,
                      1.1000000000000085
                    ],
                    [
                      -1.0999999999999943,
                      -3
                    ],
                    [
                      0.8999999999999773,
                      -15.099999999999994
                    ]
                  ],
                  "o": [
                    [
                      -0.09999999999999432,
                      0
                    ],
                    [
                      -3.1999999999999886,
                      -0.19999999999998863
                    ],
                    [
                      0.9000000000000057,
                      -13.599999999999994
                    ],
                    [
                      -1.1000000000000227,
                      -3
                    ],
                    [
                      3,
                      -1.0999999999999943
                    ],
                    [
                      5,
                      14.200000000000003
                    ],
                    [
                      -0.30000000000001137,
                      3.0999999999999943
                    ]
                  ]
                }
              }
            },
            {
              "ty": "st",
              "o": {
                "a": 0,
                "k": 0
              },
              "w": {
                "a": 0,
                "k": 0
              },
              "c": {
                "a": 0,
                "k": [
                  0,
                  0,
                  0,
                  0
                ]
              },
              "lc": 3,
              "lj": 1,
              "ml": 1
            },
            {
              "ty": "gf",
              "o": {
                "a": 0,
                "k": 100
              },
              "r": 1,
              "g": {
                "p": 2,
                "k": {
                  "a": 0,
                  "k": [
                    0.9543,
                    0.5607843137254902,
                    0.9647058823529412,
                    0.9882352941176471,
                    0.9994,
                    0.5647058823529412,
                    0.9803921568627451,
                    1
                  ]
                }
              },
              "t": 1,
              "s": {
                "a": 0,
                "k": [
                  -188.601,
                  -276.934
                ]
              },
              "e": {
                "a": 0,
                "k": [
                  127.739,
                  82.0358
                ]
              }
            },
            {
              "ty": "tr",
              "o": {
                "a": 0,
                "k": 100
              },
              "a": {
                "a": 0,
                "k": [
                  0,
                  0
                ]
              },
              "s": {
                "a": 0,
                "k": [
                  100,
                  100
                ]
              },
              "p": {
                "a": 0,
                "k": [
                  0,
                  0
                ]
              },
              "r": {
                "a": 0,
                "k": 0
              }
            }
          ]
        },
        {
          "ty": "gr",
          "nm": "Group Copy 4 shape group",
          "it": [
            {
              "ty": "sh",
              "ks": {
                "a": 0,
                "k": {
                  "c": true,
                  "v": [
                    [
                      71.8,
                      233
                    ],
                    [
                      69.4,
                      232.5
                    ],
                    [
                      66.5,
                      224.9
                    ],
                    [
                      74.4,
                      198.8
                    ],
                    [
                      81,
                      194
                    ],
                    [
                      85.8,
                      200.6
                    ],
                    [
                      77,
                      229.6
                    ]
                  ],
                  "i": [
                    [
                      2.200000000000003,
                      0
                    ],
                    [
                      0.7999999999999972,
                      0.30000000000001137
                    ],
                    [
                      -1.2999999999999972,
                      2.9000000000000057
                    ],
                    [
                      -1.4000000000000057,
                      9
                    ],
                    [
                      -3.0999999999999943,
                      -0.5
                    ],
                    [
                      0.5,
                      -3.0999999999999943
                    ],
                    [
                      4.200000000000003,
                      -9.199999999999989
                    ]
                  ],
                  "o": [
                    [
                      -0.7999999999999972,
                      0
                    ],
                    [
                      -2.9000000000000057,
                      -1.3000000000000114
                    ],
                    [
                      3.799999999999997,
                      -8.300000000000011
                    ],
                    [
                      0.5,
                      -3.1000000000000227
                    ],
                    [
                      3.0999999999999943,
                      0.5
                    ],
                    [
                      -1.5999999999999943,
                      10
                    ],
                    [
                      -0.9000000000000057,
                      2.0999999999999943
                    ]
                  ]
                }
              }
            },
            {
              "ty": "st",
              "o": {
                "a": 0,
                "k": 0
              },
              "w": {
                "a": 0,
                "k": 0
              },
              "c": {
                "a": 0,
                "k": [
                  0,
                  0,
                  0,
                  0
                ]
              },
              "lc": 3,
              "lj": 1,
              "ml": 1
            },
            {
              "ty": "gf",
              "o": {
                "a": 0,
                "k": 100
              },
              "r": 1,
              "g": {
                "p": 2,
                "k": {
                  "a": 0,
                  "k": [
                    0.9543,
                    0.5607843137254902,
                    0.9647058823529412,
                    0.9882352941176471,
                    0.9994,
                    0.5647058823529412,
                    0.9803921568627451,
                    1
                  ]
                }
              },
              "t": 1,
              "s": {
                "a": 0,
                "k": [
                  -71.6551,
                  85.8949
                ]
              },
              "e": {
                "a": 0,
                "k": [
                  290.404,
                  398.691
                ]
              }
            },
            {
              "ty": "tr",
              "o": {
                "a": 0,
                "k": 100
              },
              "a": {
                "a": 0,
                "k": [
                  0,
                  0
                ]
              },
              "s": {
                "a": 0,
                "k": [
                  100,
                  100
                ]
              },
              "p": {
                "a": 0,
                "k": [
                  0,
                  0
                ]
              },
              "r": {
                "a": 0,
                "k": 0
              }
            }
          ]
        },
        {
          "ty": "gr",
          "nm": "Group Copy 4 shape group",
          "it": [
            {
              "ty": "sh",
              "ks": {
                "a": 0,
                "k": {
                  "c": true,
                  "v": [
                    [
                      82.8,
                      183.8
                    ],
                    [
                      77,
                      178
                    ],
                    [
                      70.3,
                      129.2
                    ],
                    [
                      74.3,
                      122.1
                    ],
                    [
                      81.4,
                      126.1
                    ],
                    [
                      88.5,
                      177.9
                    ]
                  ],
                  "i": [
                    [
                      3.200000000000003,
                      0
                    ],
                    [
                      0,
                      3.1999999999999886
                    ],
                    [
                      4.400000000000006,
                      15.900000000000006
                    ],
                    [
                      -3,
                      0.8000000000000114
                    ],
                    [
                      -0.8000000000000114,
                      -3
                    ],
                    [
                      -0.09999999999999432,
                      -17.5
                    ]
                  ],
                  "o": [
                    [
                      -3.200000000000003,
                      0
                    ],
                    [
                      0,
                      -16.5
                    ],
                    [
                      -0.7999999999999972,
                      -3.0999999999999943
                    ],
                    [
                      3.1000000000000085,
                      -0.7999999999999972
                    ],
                    [
                      4.699999999999989,
                      16.80000000000001
                    ],
                    [
                      0,
                      3.299999999999983
                    ]
                  ]
                }
              }
            },
            {
              "ty": "st",
              "o": {
                "a": 0,
                "k": 0
              },
              "w": {
                "a": 0,
                "k": 0
              },
              "c": {
                "a": 0,
                "k": [
                  0,
                  0,
                  0,
                  0
                ]
              },
              "lc": 3,
              "lj": 1,
              "ml": 1
            },
            {
              "ty": "gf",
              "o": {
                "a": 0,
                "k": 100
              },
              "r": 1,
              "g": {
                "p": 2,
                "k": {
                  "a": 0,
                  "k": [
                    0.9543,
                    0.5607843137254902,
                    0.9647058823529412,
                    0.9882352941176471,
                    0.9994,
                    0.5647058823529412,
                    0.9803921568627451,
                    1
                  ]
                }
              },
              "t": 1,
              "s": {
                "a": 0,
                "k": [
                  -269.783,
                  -256.539
                ]
              },
              "e": {
                "a": 0,
                "k": [
                  40.6397,
                  107.544
                ]
              }
            },
            {
              "ty": "tr",
              "o": {
                "a": 0,
                "k": 100
              },
              "a": {
                "a": 0,
                "k": [
                  0,
                  0
                ]
              },
              "s": {
                "a": 0,
                "k": [
                  100,
                  100
                ]
              },
              "p": {
                "a": 0,
                "k": [
                  0,
                  0
                ]
              },
              "r": {
                "a": 0,
                "k": 0
              }
            }
          ]
        },
        {
          "ty": "gr",
          "nm": "Group Copy 4 shape group",
          "it": [
            {
              "ty": "sh",
              "ks": {
                "a": 0,
                "k": {
                  "c": true,
                  "v": [
                    [
                      80.7,
                      106.4
                    ],
                    [
                      78,
                      105.7
                    ],
                    [
                      75.6,
                      97.9
                    ],
                    [
                      122.3,
                      69.6
                    ],
                    [
                      157.7,
                      83.3
                    ],
                    [
                      158.1,
                      91.5
                    ],
                    [
                      149.9,
                      91.9
                    ],
                    [
                      122.3,
                      81.2
                    ],
                    [
                      85.9,
                      103.3
                    ]
                  ],
                  "i": [
                    [
                      2.0999999999999943,
                      0
                    ],
                    [
                      0.9000000000000057,
                      0.5
                    ],
                    [
                      -1.5,
                      2.799999999999997
                    ],
                    [
                      -19.700000000000003,
                      0
                    ],
                    [
                      -9.699999999999989,
                      -8.799999999999997
                    ],
                    [
                      2.0999999999999943,
                      -2.4000000000000057
                    ],
                    [
                      2.4000000000000057,
                      2.0999999999999943
                    ],
                    [
                      10.200000000000003,
                      0
                    ],
                    [
                      7.099999999999994,
                      -13.599999999999994
                    ]
                  ],
                  "o": [
                    [
                      -0.9000000000000057,
                      0
                    ],
                    [
                      -2.799999999999997,
                      -1.5
                    ],
                    [
                      9.100000000000009,
                      -17.400000000000006
                    ],
                    [
                      13.100000000000009,
                      0
                    ],
                    [
                      2.4000000000000057,
                      2.1000000000000085
                    ],
                    [
                      -2.0999999999999943,
                      2.4000000000000057
                    ],
                    [
                      -7.599999999999994,
                      -6.900000000000006
                    ],
                    [
                      -15.399999999999991,
                      0
                    ],
                    [
                      -1.1000000000000085,
                      2
                    ]
                  ]
                }
              }
            },
            {
              "ty": "st",
              "o": {
                "a": 0,
                "k": 0
              },
              "w": {
                "a": 0,
                "k": 0
              },
              "c": {
                "a": 0,
                "k": [
                  0,
                  0,
                  0,
                  0
                ]
              },
              "lc": 3,
              "lj": 1,
              "ml": 1
            },
            {
              "ty": "gf",
              "o": {
                "a": 0,
                "k": 100
              },
              "r": 1,
              "g": {
                "p": 2,
                "k": {
                  "a": 0,
                  "k": [
                    0.9543,
                    0.5607843137254902,
                    0.9647058823529412,
                    0.9882352941176471,
                    0.9994,
                    0.5647058823529412,
                    0.9803921568627451,
                    1
                  ]
                }
              },
              "t": 1,
              "s": {
                "a": 0,
                "k": [
                  -111.566,
                  -134.63
                ]
              },
              "e": {
                "a": 0,
                "k": [
                  226.758,
                  203.694
                ]
              }
            },
            {
              "ty": "tr",
              "o": {
                "a": 0,
                "k": 100
              },
              "a": {
                "a": 0,
                "k": [
                  0,
                  0
                ]
              },
              "s": {
                "a": 0,
                "k": [
                  100,
                  100
                ]
              },
              "p": {
                "a": 0,
                "k": [
                  0,
                  0
                ]
              },
              "r": {
                "a": 0,
                "k": 0
              }
            }
          ]
        },
        {
          "ty": "gr",
          "nm": "Group Copy 4 shape group",
          "it": [
            {
              "ty": "sh",
              "ks": {
                "a": 0,
                "k": {
                  "c": true,
                  "v": [
                    [
                      137.6,
                      245
                    ],
                    [
                      132.8,
                      242.5
                    ],
                    [
                      134.3,
                      234.5
                    ],
                    [
                      186.9,
                      148.2
                    ],
                    [
                      193.4,
                      143.2
                    ],
                    [
                      198.3,
                      149.7
                    ],
                    [
                      140.8,
                      244
                    ]
                  ],
                  "i": [
                    [
                      1.0999999999999943,
                      0
                    ],
                    [
                      1.1999999999999886,
                      1.5999999999999943
                    ],
                    [
                      -2.6000000000000227,
                      1.8000000000000114
                    ],
                    [
                      -4.800000000000011,
                      35.60000000000002
                    ],
                    [
                      -3.200000000000017,
                      -0.39999999999997726
                    ],
                    [
                      0.5,
                      -3.1999999999999886
                    ],
                    [
                      31.799999999999983,
                      -21.900000000000006
                    ]
                  ],
                  "o": [
                    [
                      -1.799999999999983,
                      0
                    ],
                    [
                      -1.8000000000000114,
                      -2.5999999999999943
                    ],
                    [
                      29.099999999999994,
                      -20
                    ],
                    [
                      0.4000000000000057,
                      -3.1999999999999886
                    ],
                    [
                      3.1999999999999886,
                      0.4000000000000057
                    ],
                    [
                      -5.200000000000017,
                      38.900000000000006
                    ],
                    [
                      -1,
                      0.6999999999999886
                    ]
                  ]
                }
              }
            },
            {
              "ty": "st",
              "o": {
                "a": 0,
                "k": 0
              },
              "w": {
                "a": 0,
                "k": 0
              },
              "c": {
                "a": 0,
                "k": [
                  0,
                  0,
                  0,
                  0
                ]
              },
              "lc": 3,
              "lj": 1,
              "ml": 1
            },
            {
              "ty": "gf",
              "o": {
                "a": 0,
                "k": 100
              },
              "r": 1,
              "g": {
                "p": 2,
                "k": {
                  "a": 0,
                  "k": [
                    0.9543,
                    0.5607843137254902,
                    0.9647058823529412,
                    0.9882352941176471,
                    0.9994,
                    0.5647058823529412,
                    0.9803921568627451,
                    1
                  ]
                }
              },
              "t": 1,
              "s": {
                "a": 0,
                "k": [
                  -81.0577,
                  -32.5954
                ]
              },
              "e": {
                "a": 0,
                "k": [
                  270.881,
                  291.469
                ]
              }
            },
            {
              "ty": "tr",
              "o": {
                "a": 0,
                "k": 100
              },
              "a": {
                "a": 0,
                "k": [
                  0,
                  0
                ]
              },
              "s": {
                "a": 0,
                "k": [
                  100,
                  100
                ]
              },
              "p": {
                "a": 0,
                "k": [
                  0,
                  0
                ]
              },
              "r": {
                "a": 0,
                "k": 0
              }
            }
          ]
        },
        {
          "ty": "gr",
          "nm": "Group Copy 4 shape group",
          "it": [
            {
              "ty": "sh",
              "ks": {
                "a": 0,
                "k": {
                  "c": true,
                  "v": [
                    [
                      49.8,
                      219.4
                    ],
                    [
                      47.8,
                      219
                    ],
                    [
                      44.4,
                      211.6
                    ],
                    [
                      51.5,
                      172.4
                    ],
                    [
                      48.4,
                      146.3
                    ],
                    [
                      52.7,
                      139.3
                    ],
                    [
                      59.7,
                      143.6
                    ],
                    [
                      63.1,
                      172.4
                    ],
                    [
                      55.3,
                      215.6
                    ]
                  ],
                  "i": [
                    [
                      2.3000000000000043,
                      0
                    ],
                    [
                      0.6000000000000014,
                      0.30000000000001137
                    ],
